digraph Tree {
node [shape=box, style="filled, rounded", color="black", fontname="helvetica"] ;
edge [fontname="helvetica"] ;
0 [label="mean_gradient_max <= 0.013\ngini = 0.298\nsamples = 6\nvalue = [2, 9]\nclass = label_1", fillcolor="#65b3eb"] ;
1 [label="gini = 0.0\nsamples = 5\nvalue = [0, 9]\nclass = label_1", fillcolor="#399de5"] ;
0 -> 1 [labeldistance=2.5, labelangle=45, headlabel="True"] ;
2 [label="gini = 0.0\nsamples = 1\nvalue = [2, 0]\nclass = label_0", fillcolor="#e58139"] ;
0 -> 2 [labeldistance=2.5, labelangle=-45, headlabel="False"] ;
}